//Numpy array shape [8, 16]
//Min -2.000000000000
//Max 1.109375000000
//Number of zeros 36

#ifndef W5_H_
#define W5_H_

#ifndef __SYNTHESIS__
weight5_t w5[128];
#else
weight5_t w5[128] = {0.265625, 0.812500, -2.000000, -1.250000, -1.125000, 0.484375, -0.218750, -0.421875, -0.546875, -1.062500, -0.031250, -0.593750, -1.156250, -0.015625, -0.031250, -0.015625, 0.484375, -0.390625, -2.000000, 0.703125, 0.078125, -0.578125, -0.750000, -0.843750, -2.000000, -2.000000, -1.500000, -0.921875, -0.500000, -1.578125, -1.500000, -1.515625, 0.921875, -0.515625, -2.000000, -1.718750, -1.390625, 0.109375, -0.968750, 0.031250, -2.000000, -0.859375, 0.000000, 0.031250, -0.828125, 0.000000, 0.000000, 0.000000, 0.593750, -1.593750, -1.515625, -1.437500, 0.187500, 0.390625, -0.531250, -1.187500, -0.921875, 0.562500, -1.265625, -1.984375, 0.015625, -1.234375, -1.265625, -1.250000, 0.000000, 0.000000, 0.000000, 0.000000, 0.000000, 0.000000, 0.000000, 0.000000, 0.000000, 0.000000, 0.000000, 0.000000, 0.000000, 0.000000, 0.000000, 0.000000, -0.859375, 0.406250, 0.093750, -1.687500, -1.421875, -0.109375, -0.328125, -1.109375, 1.109375, -2.000000, -1.109375, -0.515625, -0.609375, -1.062500, -1.109375, -1.109375, -0.515625, -0.140625, 0.453125, -0.093750, -0.343750, -1.046875, -0.812500, -1.828125, -0.328125, 0.609375, -2.000000, -1.562500, 0.125000, -2.000000, -2.000000, -2.000000, 0.000000, 0.000000, 0.000000, 0.000000, 0.000000, 0.000000, 0.000000, 0.000000, 0.000000, 0.000000, 0.000000, 0.000000, 0.000000, 0.000000, 0.000000, 0.000000};
#endif

#endif
